digraph Tree {
node [shape=box, fontname="helvetica"] ;
edge [fontname="helvetica"] ;
0 [label="Hague <= 3.5\ngini = 0.429\nsamples = 1067\nvalue = [332, 735]\nclass = 0"] ;
1 [label="Blair <= 3.0\ngini = 0.234\nsamples = 622\nvalue = [84, 538]\nclass = 0"] ;
0 -> 1 [labeldistance=2.5, labelangle=45, headlabel="True"] ;
2 [label="Europe <= 6.5\ngini = 0.436\nsamples = 156\nvalue = [50.0, 106.0]\nclass = 0"] ;
1 -> 2 ;
3 [label="age <= 25.5\ngini = 0.259\nsamples = 72\nvalue = [11, 61]\nclass = 0"] ;
2 -> 3 ;
4 [label="gini = 0.0\nsamples = 1\nvalue = [1, 0]\nclass = 1"] ;
3 -> 4 ;
5 [label="age <= 50.5\ngini = 0.242\nsamples = 71\nvalue = [10, 61]\nclass = 0"] ;
3 -> 5 ;
6 [label="gini = 0.0\nsamples = 24\nvalue = [0, 24]\nclass = 0"] ;
5 -> 6 ;
7 [label="economic.cond.national <= 3.5\ngini = 0.335\nsamples = 47\nvalue = [10, 37]\nclass = 0"] ;
5 -> 7 ;
8 [label="Europe <= 1.5\ngini = 0.42\nsamples = 30\nvalue = [9, 21]\nclass = 0"] ;
7 -> 8 ;
9 [label="gini = 0.0\nsamples = 7\nvalue = [0, 7]\nclass = 0"] ;
8 -> 9 ;
10 [label="Europe <= 4.5\ngini = 0.476\nsamples = 23\nvalue = [9, 14]\nclass = 0"] ;
8 -> 10 ;
11 [label="economic.cond.household <= 3.5\ngini = 0.494\nsamples = 9\nvalue = [5, 4]\nclass = 1"] ;
10 -> 11 ;
12 [label="gender <= 0.5\ngini = 0.408\nsamples = 7\nvalue = [5, 2]\nclass = 1"] ;
11 -> 12 ;
13 [label="gini = 0.0\nsamples = 4\nvalue = [4, 0]\nclass = 1"] ;
12 -> 13 ;
14 [label="Blair <= 1.5\ngini = 0.444\nsamples = 3\nvalue = [1, 2]\nclass = 0"] ;
12 -> 14 ;
15 [label="gini = 0.0\nsamples = 1\nvalue = [1, 0]\nclass = 1"] ;
14 -> 15 ;
16 [label="gini = 0.0\nsamples = 2\nvalue = [0, 2]\nclass = 0"] ;
14 -> 16 ;
17 [label="gini = 0.0\nsamples = 2\nvalue = [0, 2]\nclass = 0"] ;
11 -> 17 ;
18 [label="age <= 76.0\ngini = 0.408\nsamples = 14\nvalue = [4, 10]\nclass = 0"] ;
10 -> 18 ;
19 [label="age <= 65.5\ngini = 0.355\nsamples = 13\nvalue = [3, 10]\nclass = 0"] ;
18 -> 19 ;
20 [label="age <= 64.5\ngini = 0.42\nsamples = 10\nvalue = [3, 7]\nclass = 0"] ;
19 -> 20 ;
21 [label="Hague <= 1.5\ngini = 0.346\nsamples = 9\nvalue = [2, 7]\nclass = 0"] ;
20 -> 21 ;
22 [label="gini = 0.0\nsamples = 3\nvalue = [0, 3]\nclass = 0"] ;
21 -> 22 ;
23 [label="economic.cond.household <= 3.5\ngini = 0.444\nsamples = 6\nvalue = [2, 4]\nclass = 0"] ;
21 -> 23 ;
24 [label="gender <= 0.5\ngini = 0.32\nsamples = 5\nvalue = [1, 4]\nclass = 0"] ;
23 -> 24 ;
25 [label="gini = 0.0\nsamples = 4\nvalue = [0, 4]\nclass = 0"] ;
24 -> 25 ;
26 [label="gini = 0.0\nsamples = 1\nvalue = [1, 0]\nclass = 1"] ;
24 -> 26 ;
27 [label="gini = 0.0\nsamples = 1\nvalue = [1, 0]\nclass = 1"] ;
23 -> 27 ;
28 [label="gini = 0.0\nsamples = 1\nvalue = [1, 0]\nclass = 1"] ;
20 -> 28 ;
29 [label="gini = 0.0\nsamples = 3\nvalue = [0, 3]\nclass = 0"] ;
19 -> 29 ;
30 [label="gini = 0.0\nsamples = 1\nvalue = [1, 0]\nclass = 1"] ;
18 -> 30 ;
31 [label="age <= 56.5\ngini = 0.111\nsamples = 17\nvalue = [1, 16]\nclass = 0"] ;
7 -> 31 ;
32 [label="gender <= 0.5\ngini = 0.375\nsamples = 4\nvalue = [1, 3]\nclass = 0"] ;
31 -> 32 ;
33 [label="gini = 0.0\nsamples = 1\nvalue = [1, 0]\nclass = 1"] ;
32 -> 33 ;
34 [label="gini = 0.0\nsamples = 3\nvalue = [0, 3]\nclass = 0"] ;
32 -> 34 ;
35 [label="gini = 0.0\nsamples = 13\nvalue = [0, 13]\nclass = 0"] ;
31 -> 35 ;
36 [label="political.knowledge <= 1.5\ngini = 0.497\nsamples = 84\nvalue = [39, 45]\nclass = 0"] ;
2 -> 36 ;
37 [label="gender <= 0.5\ngini = 0.353\nsamples = 35\nvalue = [8, 27]\nclass = 0"] ;
36 -> 37 ;
38 [label="Blair <= 1.5\ngini = 0.444\nsamples = 24\nvalue = [8, 16]\nclass = 0"] ;
37 -> 38 ;
39 [label="gini = 0.0\nsamples = 3\nvalue = [0, 3]\nclass = 0"] ;
38 -> 39 ;
40 [label="economic.cond.household <= 2.5\ngini = 0.472\nsamples = 21\nvalue = [8, 13]\nclass = 0"] ;
38 -> 40 ;
41 [label="age <= 58.5\ngini = 0.245\nsamples = 7\nvalue = [1, 6]\nclass = 0"] ;
40 -> 41 ;
42 [label="Europe <= 10.0\ngini = 0.444\nsamples = 3\nvalue = [1, 2]\nclass = 0"] ;
41 -> 42 ;
43 [label="gini = 0.0\nsamples = 2\nvalue = [0, 2]\nclass = 0"] ;
42 -> 43 ;
44 [label="gini = 0.0\nsamples = 1\nvalue = [1, 0]\nclass = 1"] ;
42 -> 44 ;
45 [label="gini = 0.0\nsamples = 4\nvalue = [0, 4]\nclass = 0"] ;
41 -> 45 ;
46 [label="age <= 64.0\ngini = 0.5\nsamples = 14\nvalue = [7, 7]\nclass = 1"] ;
40 -> 46 ;
47 [label="Europe <= 8.5\ngini = 0.463\nsamples = 11\nvalue = [4, 7]\nclass = 0"] ;
46 -> 47 ;
48 [label="gini = 0.0\nsamples = 2\nvalue = [2, 0]\nclass = 1"] ;
47 -> 48 ;
49 [label="Europe <= 9.5\ngini = 0.346\nsamples = 9\nvalue = [2, 7]\nclass = 0"] ;
47 -> 49 ;
50 [label="gini = 0.0\nsamples = 3\nvalue = [0, 3]\nclass = 0"] ;
49 -> 50 ;
51 [label="age <= 37.5\ngini = 0.444\nsamples = 6\nvalue = [2, 4]\nclass = 0"] ;
49 -> 51 ;
52 [label="gini = 0.0\nsamples = 1\nvalue = [1, 0]\nclass = 1"] ;
51 -> 52 ;
53 [label="age <= 56.5\ngini = 0.32\nsamples = 5\nvalue = [1, 4]\nclass = 0"] ;
51 -> 53 ;
54 [label="gini = 0.0\nsamples = 3\nvalue = [0, 3]\nclass = 0"] ;
53 -> 54 ;
55 [label="age <= 60.5\ngini = 0.5\nsamples = 2\nvalue = [1, 1]\nclass = 1"] ;
53 -> 55 ;
56 [label="gini = 0.0\nsamples = 1\nvalue = [1, 0]\nclass = 1"] ;
55 -> 56 ;
57 [label="gini = 0.0\nsamples = 1\nvalue = [0, 1]\nclass = 0"] ;
55 -> 57 ;
58 [label="gini = 0.0\nsamples = 3\nvalue = [3, 0]\nclass = 1"] ;
46 -> 58 ;
59 [label="gini = 0.0\nsamples = 11\nvalue = [0, 11]\nclass = 0"] ;
37 -> 59 ;
60 [label="economic.cond.national <= 3.5\ngini = 0.465\nsamples = 49\nvalue = [31, 18]\nclass = 1"] ;
36 -> 60 ;
61 [label="age <= 34.5\ngini = 0.411\nsamples = 38\nvalue = [27, 11]\nclass = 1"] ;
60 -> 61 ;
62 [label="economic.cond.national <= 2.5\ngini = 0.444\nsamples = 3\nvalue = [1, 2]\nclass = 0"] ;
61 -> 62 ;
63 [label="gini = 0.0\nsamples = 1\nvalue = [1, 0]\nclass = 1"] ;
62 -> 63 ;
64 [label="gini = 0.0\nsamples = 2\nvalue = [0, 2]\nclass = 0"] ;
62 -> 64 ;
65 [label="Hague <= 1.5\ngini = 0.382\nsamples = 35\nvalue = [26, 9]\nclass = 1"] ;
61 -> 65 ;
66 [label="economic.cond.household <= 2.5\ngini = 0.5\nsamples = 4\nvalue = [2, 2]\nclass = 1"] ;
65 -> 66 ;
67 [label="gini = 0.0\nsamples = 2\nvalue = [2, 0]\nclass = 1"] ;
66 -> 67 ;
68 [label="gini = 0.0\nsamples = 2\nvalue = [0, 2]\nclass = 0"] ;
66 -> 68 ;
69 [label="age <= 62.5\ngini = 0.35\nsamples = 31\nvalue = [24, 7]\nclass = 1"] ;
65 -> 69 ;
70 [label="Europe <= 10.5\ngini = 0.415\nsamples = 17\nvalue = [12, 5]\nclass = 1"] ;
69 -> 70 ;
71 [label="age <= 57.0\ngini = 0.278\nsamples = 12\nvalue = [10, 2]\nclass = 1"] ;
70 -> 71 ;
72 [label="Europe <= 7.5\ngini = 0.18\nsamples = 10\nvalue = [9, 1]\nclass = 1"] ;
71 -> 72 ;
73 [label="Blair <= 1.5\ngini = 0.444\nsamples = 3\nvalue = [2, 1]\nclass = 1"] ;
72 -> 73 ;
74 [label="gini = 0.0\nsamples = 1\nvalue = [0, 1]\nclass = 0"] ;
73 -> 74 ;
75 [label="gini = 0.0\nsamples = 2\nvalue = [2, 0]\nclass = 1"] ;
73 -> 75 ;
76 [label="gini = 0.0\nsamples = 7\nvalue = [7, 0]\nclass = 1"] ;
72 -> 76 ;
77 [label="Hague <= 2.5\ngini = 0.5\nsamples = 2\nvalue = [1, 1]\nclass = 1"] ;
71 -> 77 ;
78 [label="gini = 0.0\nsamples = 1\nvalue = [0, 1]\nclass = 0"] ;
77 -> 78 ;
79 [label="gini = 0.0\nsamples = 1\nvalue = [1, 0]\nclass = 1"] ;
77 -> 79 ;
80 [label="economic.cond.household <= 3.5\ngini = 0.48\nsamples = 5\nvalue = [2, 3]\nclass = 0"] ;
70 -> 80 ;
81 [label="gender <= 0.5\ngini = 0.375\nsamples = 4\nvalue = [1, 3]\nclass = 0"] ;
80 -> 81 ;
82 [label="gini = 0.0\nsamples = 2\nvalue = [0, 2]\nclass = 0"] ;
81 -> 82 ;
83 [label="economic.cond.household <= 2.5\ngini = 0.5\nsamples = 2\nvalue = [1, 1]\nclass = 1"] ;
81 -> 83 ;
84 [label="gini = 0.0\nsamples = 1\nvalue = [0, 1]\nclass = 0"] ;
83 -> 84 ;
85 [label="gini = 0.0\nsamples = 1\nvalue = [1, 0]\nclass = 1"] ;
83 -> 85 ;
86 [label="gini = 0.0\nsamples = 1\nvalue = [1, 0]\nclass = 1"] ;
80 -> 86 ;
87 [label="Europe <= 8.5\ngini = 0.245\nsamples = 14\nvalue = [12, 2]\nclass = 1"] ;
69 -> 87 ;
88 [label="gini = 0.0\nsamples = 1\nvalue = [0, 1]\nclass = 0"] ;
87 -> 88 ;
89 [label="age <= 78.0\ngini = 0.142\nsamples = 13\nvalue = [12, 1]\nclass = 1"] ;
87 -> 89 ;
90 [label="gini = 0.0\nsamples = 11\nvalue = [11, 0]\nclass = 1"] ;
89 -> 90 ;
91 [label="political.knowledge <= 2.5\ngini = 0.5\nsamples = 2\nvalue = [1, 1]\nclass = 1"] ;
89 -> 91 ;
92 [label="gini = 0.0\nsamples = 1\nvalue = [1, 0]\nclass = 1"] ;
91 -> 92 ;
93 [label="gini = 0.0\nsamples = 1\nvalue = [0, 1]\nclass = 0"] ;
91 -> 93 ;
94 [label="age <= 36.5\ngini = 0.463\nsamples = 11\nvalue = [4, 7]\nclass = 0"] ;
60 -> 94 ;
95 [label="gini = 0.0\nsamples = 3\nvalue = [0, 3]\nclass = 0"] ;
94 -> 95 ;
96 [label="economic.cond.household <= 3.5\ngini = 0.5\nsamples = 8\nvalue = [4, 4]\nclass = 1"] ;
94 -> 96 ;
97 [label="age <= 72.5\ngini = 0.32\nsamples = 5\nvalue = [1, 4]\nclass = 0"] ;
96 -> 97 ;
98 [label="gini = 0.0\nsamples = 2\nvalue = [0, 2]\nclass = 0"] ;
97 -> 98 ;
99 [label="age <= 74.5\ngini = 0.444\nsamples = 3\nvalue = [1, 2]\nclass = 0"] ;
97 -> 99 ;
100 [label="gini = 0.0\nsamples = 1\nvalue = [1, 0]\nclass = 1"] ;
99 -> 100 ;
101 [label="gini = 0.0\nsamples = 2\nvalue = [0, 2]\nclass = 0"] ;
99 -> 101 ;
102 [label="gini = 0.0\nsamples = 3\nvalue = [3, 0]\nclass = 1"] ;
96 -> 102 ;
103 [label="economic.cond.national <= 2.5\ngini = 0.135\nsamples = 466\nvalue = [34, 432]\nclass = 0"] ;
1 -> 103 ;
104 [label="Europe <= 9.5\ngini = 0.348\nsamples = 49\nvalue = [11, 38]\nclass = 0"] ;
103 -> 104 ;
105 [label="political.knowledge <= 1.0\ngini = 0.198\nsamples = 36\nvalue = [4, 32]\nclass = 0"] ;
104 -> 105 ;
106 [label="age <= 37.5\ngini = 0.42\nsamples = 10\nvalue = [3, 7]\nclass = 0"] ;
105 -> 106 ;
107 [label="gini = 0.0\nsamples = 2\nvalue = [0, 2]\nclass = 0"] ;
106 -> 107 ;
108 [label="age <= 41.0\ngini = 0.469\nsamples = 8\nvalue = [3, 5]\nclass = 0"] ;
106 -> 108 ;
109 [label="gini = 0.0\nsamples = 1\nvalue = [1, 0]\nclass = 1"] ;
108 -> 109 ;
110 [label="economic.cond.household <= 3.5\ngini = 0.408\nsamples = 7\nvalue = [2, 5]\nclass = 0"] ;
108 -> 110 ;
111 [label="gender <= 0.5\ngini = 0.278\nsamples = 6\nvalue = [1, 5]\nclass = 0"] ;
110 -> 111 ;
112 [label="gini = 0.0\nsamples = 4\nvalue = [0, 4]\nclass = 0"] ;
111 -> 112 ;
113 [label="Europe <= 7.5\ngini = 0.5\nsamples = 2\nvalue = [1, 1]\nclass = 1"] ;
111 -> 113 ;
114 [label="gini = 0.0\nsamples = 1\nvalue = [0, 1]\nclass = 0"] ;
113 -> 114 ;
115 [label="gini = 0.0\nsamples = 1\nvalue = [1, 0]\nclass = 1"] ;
113 -> 115 ;
116 [label="gini = 0.0\nsamples = 1\nvalue = [1, 0]\nclass = 1"] ;
110 -> 116 ;
117 [label="age <= 58.0\ngini = 0.074\nsamples = 26\nvalue = [1, 25]\nclass = 0"] ;
105 -> 117 ;
118 [label="gini = 0.0\nsamples = 19\nvalue = [0, 19]\nclass = 0"] ;
117 -> 118 ;
119 [label="age <= 60.0\ngini = 0.245\nsamples = 7\nvalue = [1, 6]\nclass = 0"] ;
117 -> 119 ;
120 [label="gini = 0.0\nsamples = 1\nvalue = [1, 0]\nclass = 1"] ;
119 -> 120 ;
121 [label="gini = 0.0\nsamples = 6\nvalue = [0, 6]\nclass = 0"] ;
119 -> 121 ;
122 [label="Hague <= 1.5\ngini = 0.497\nsamples = 13\nvalue = [7, 6]\nclass = 1"] ;
104 -> 122 ;
123 [label="gini = 0.0\nsamples = 3\nvalue = [0, 3]\nclass = 0"] ;
122 -> 123 ;
124 [label="political.knowledge <= 1.0\ngini = 0.42\nsamples = 10\nvalue = [7, 3]\nclass = 1"] ;
122 -> 124 ;
125 [label="economic.cond.household <= 1.5\ngini = 0.444\nsamples = 3\nvalue = [1, 2]\nclass = 0"] ;
124 -> 125 ;
126 [label="gini = 0.0\nsamples = 1\nvalue = [1, 0]\nclass = 1"] ;
125 -> 126 ;
127 [label="gini = 0.0\nsamples = 2\nvalue = [0, 2]\nclass = 0"] ;
125 -> 127 ;
128 [label="political.knowledge <= 2.5\ngini = 0.245\nsamples = 7\nvalue = [6, 1]\nclass = 1"] ;
124 -> 128 ;
129 [label="age <= 67.5\ngini = 0.375\nsamples = 4\nvalue = [3, 1]\nclass = 1"] ;
128 -> 129 ;
130 [label="economic.cond.household <= 3.5\ngini = 0.5\nsamples = 2\nvalue = [1, 1]\nclass = 1"] ;
129 -> 130 ;
131 [label="gini = 0.0\nsamples = 1\nvalue = [0, 1]\nclass = 0"] ;
130 -> 131 ;
132 [label="gini = 0.0\nsamples = 1\nvalue = [1, 0]\nclass = 1"] ;
130 -> 132 ;
133 [label="gini = 0.0\nsamples = 2\nvalue = [2, 0]\nclass = 1"] ;
129 -> 133 ;
134 [label="gini = 0.0\nsamples = 3\nvalue = [3, 0]\nclass = 1"] ;
128 -> 134 ;
135 [label="economic.cond.household <= 1.5\ngini = 0.104\nsamples = 417\nvalue = [23, 394]\nclass = 0"] ;
103 -> 135 ;
136 [label="political.knowledge <= 2.5\ngini = 0.397\nsamples = 11\nvalue = [3, 8]\nclass = 0"] ;
135 -> 136 ;
137 [label="economic.cond.national <= 4.5\ngini = 0.219\nsamples = 8\nvalue = [1, 7]\nclass = 0"] ;
136 -> 137 ;
138 [label="gini = 0.0\nsamples = 7\nvalue = [0, 7]\nclass = 0"] ;
137 -> 138 ;
139 [label="gini = 0.0\nsamples = 1\nvalue = [1, 0]\nclass = 1"] ;
137 -> 139 ;
140 [label="age <= 50.0\ngini = 0.444\nsamples = 3\nvalue = [2, 1]\nclass = 1"] ;
136 -> 140 ;
141 [label="gini = 0.0\nsamples = 2\nvalue = [2, 0]\nclass = 1"] ;
140 -> 141 ;
142 [label="gini = 0.0\nsamples = 1\nvalue = [0, 1]\nclass = 0"] ;
140 -> 142 ;
143 [label="Europe <= 4.5\ngini = 0.094\nsamples = 406\nvalue = [20, 386]\nclass = 0"] ;
135 -> 143 ;
144 [label="Hague <= 2.5\ngini = 0.032\nsamples = 182\nvalue = [3, 179]\nclass = 0"] ;
143 -> 144 ;
145 [label="economic.cond.household <= 3.5\ngini = 0.022\nsamples = 177\nvalue = [2, 175]\nclass = 0"] ;
144 -> 145 ;
146 [label="age <= 48.5\ngini = 0.042\nsamples = 93\nvalue = [2, 91]\nclass = 0"] ;
145 -> 146 ;
147 [label="gini = 0.0\nsamples = 39\nvalue = [0, 39]\nclass = 0"] ;
146 -> 147 ;
148 [label="age <= 49.5\ngini = 0.071\nsamples = 54\nvalue = [2, 52]\nclass = 0"] ;
146 -> 148 ;
149 [label="gender <= 0.5\ngini = 0.444\nsamples = 3\nvalue = [1, 2]\nclass = 0"] ;
148 -> 149 ;
150 [label="gini = 0.0\nsamples = 1\nvalue = [0, 1]\nclass = 0"] ;
149 -> 150 ;
151 [label="economic.cond.national <= 3.5\ngini = 0.5\nsamples = 2\nvalue = [1, 1]\nclass = 1"] ;
149 -> 151 ;
152 [label="gini = 0.0\nsamples = 1\nvalue = [1, 0]\nclass = 1"] ;
151 -> 152 ;
153 [label="gini = 0.0\nsamples = 1\nvalue = [0, 1]\nclass = 0"] ;
151 -> 153 ;
154 [label="political.knowledge <= 2.5\ngini = 0.038\nsamples = 51\nvalue = [1, 50]\nclass = 0"] ;
148 -> 154 ;
155 [label="gini = 0.0\nsamples = 38\nvalue = [0, 38]\nclass = 0"] ;
154 -> 155 ;
156 [label="Europe <= 2.5\ngini = 0.142\nsamples = 13\nvalue = [1, 12]\nclass = 0"] ;
154 -> 156 ;
157 [label="gini = 0.0\nsamples = 8\nvalue = [0, 8]\nclass = 0"] ;
156 -> 157 ;
158 [label="age <= 66.5\ngini = 0.32\nsamples = 5\nvalue = [1, 4]\nclass = 0"] ;
156 -> 158 ;
159 [label="gini = 0.0\nsamples = 3\nvalue = [0, 3]\nclass = 0"] ;
158 -> 159 ;
160 [label="gender <= 0.5\ngini = 0.5\nsamples = 2\nvalue = [1, 1]\nclass = 1"] ;
158 -> 160 ;
161 [label="gini = 0.0\nsamples = 1\nvalue = [0, 1]\nclass = 0"] ;
160 -> 161 ;
162 [label="gini = 0.0\nsamples = 1\nvalue = [1, 0]\nclass = 1"] ;
160 -> 162 ;
163 [label="gini = 0.0\nsamples = 84\nvalue = [0, 84]\nclass = 0"] ;
145 -> 163 ;
164 [label="age <= 48.0\ngini = 0.32\nsamples = 5\nvalue = [1, 4]\nclass = 0"] ;
144 -> 164 ;
165 [label="gini = 0.0\nsamples = 1\nvalue = [1, 0]\nclass = 1"] ;
164 -> 165 ;
166 [label="gini = 0.0\nsamples = 4\nvalue = [0, 4]\nclass = 0"] ;
164 -> 166 ;
167 [label="age <= 25.0\ngini = 0.14\nsamples = 224\nvalue = [17, 207]\nclass = 0"] ;
143 -> 167 ;
168 [label="gini = 0.0\nsamples = 1\nvalue = [1, 0]\nclass = 1"] ;
167 -> 168 ;
169 [label="Hague <= 1.5\ngini = 0.133\nsamples = 223\nvalue = [16, 207]\nclass = 0"] ;
167 -> 169 ;
170 [label="gini = 0.0\nsamples = 53\nvalue = [0, 53]\nclass = 0"] ;
169 -> 170 ;
171 [label="political.knowledge <= 1.5\ngini = 0.171\nsamples = 170\nvalue = [16, 154]\nclass = 0"] ;
169 -> 171 ;
172 [label="age <= 60.5\ngini = 0.079\nsamples = 73\nvalue = [3, 70]\nclass = 0"] ;
171 -> 172 ;
173 [label="gini = 0.0\nsamples = 40\nvalue = [0, 40]\nclass = 0"] ;
172 -> 173 ;
174 [label="Europe <= 5.5\ngini = 0.165\nsamples = 33\nvalue = [3, 30]\nclass = 0"] ;
172 -> 174 ;
175 [label="gini = 0.0\nsamples = 1\nvalue = [1, 0]\nclass = 1"] ;
174 -> 175 ;
176 [label="age <= 67.5\ngini = 0.117\nsamples = 32\nvalue = [2, 30]\nclass = 0"] ;
174 -> 176 ;
177 [label="age <= 66.5\ngini = 0.346\nsamples = 9\nvalue = [2, 7]\nclass = 0"] ;
176 -> 177 ;
178 [label="Europe <= 7.5\ngini = 0.219\nsamples = 8\nvalue = [1, 7]\nclass = 0"] ;
177 -> 178 ;
179 [label="economic.cond.household <= 3.5\ngini = 0.375\nsamples = 4\nvalue = [1, 3]\nclass = 0"] ;
178 -> 179 ;
180 [label="age <= 62.5\ngini = 0.444\nsamples = 3\nvalue = [1, 2]\nclass = 0"] ;
179 -> 180 ;
181 [label="gini = 0.5\nsamples = 2\nvalue = [1, 1]\nclass = 1"] ;
180 -> 181 ;
182 [label="gini = 0.0\nsamples = 1\nvalue = [0, 1]\nclass = 0"] ;
180 -> 182 ;
183 [label="gini = 0.0\nsamples = 1\nvalue = [0, 1]\nclass = 0"] ;
179 -> 183 ;
184 [label="gini = 0.0\nsamples = 4\nvalue = [0, 4]\nclass = 0"] ;
178 -> 184 ;
185 [label="gini = 0.0\nsamples = 1\nvalue = [1, 0]\nclass = 1"] ;
177 -> 185 ;
186 [label="gini = 0.0\nsamples = 23\nvalue = [0, 23]\nclass = 0"] ;
176 -> 186 ;
187 [label="Europe <= 6.5\ngini = 0.232\nsamples = 97\nvalue = [13, 84]\nclass = 0"] ;
171 -> 187 ;
188 [label="age <= 52.5\ngini = 0.133\nsamples = 56\nvalue = [4, 52]\nclass = 0"] ;
187 -> 188 ;
189 [label="gini = 0.0\nsamples = 32\nvalue = [0, 32]\nclass = 0"] ;
188 -> 189 ;
190 [label="age <= 55.0\ngini = 0.278\nsamples = 24\nvalue = [4, 20]\nclass = 0"] ;
188 -> 190 ;
191 [label="Europe <= 5.5\ngini = 0.48\nsamples = 5\nvalue = [2, 3]\nclass = 0"] ;
190 -> 191 ;
192 [label="gini = 0.0\nsamples = 1\nvalue = [1, 0]\nclass = 1"] ;
191 -> 192 ;
193 [label="economic.cond.household <= 2.5\ngini = 0.375\nsamples = 4\nvalue = [1, 3]\nclass = 0"] ;
191 -> 193 ;
194 [label="gini = 0.0\nsamples = 1\nvalue = [1, 0]\nclass = 1"] ;
193 -> 194 ;
195 [label="gini = 0.0\nsamples = 3\nvalue = [0, 3]\nclass = 0"] ;
193 -> 195 ;
196 [label="gender <= 0.5\ngini = 0.188\nsamples = 19\nvalue = [2, 17]\nclass = 0"] ;
190 -> 196 ;
197 [label="gini = 0.0\nsamples = 7\nvalue = [0, 7]\nclass = 0"] ;
196 -> 197 ;
198 [label="age <= 71.5\ngini = 0.278\nsamples = 12\nvalue = [2, 10]\nclass = 0"] ;
196 -> 198 ;
199 [label="economic.cond.household <= 3.5\ngini = 0.375\nsamples = 8\nvalue = [2, 6]\nclass = 0"] ;
198 -> 199 ;
200 [label="age <= 68.0\ngini = 0.245\nsamples = 7\nvalue = [1, 6]\nclass = 0"] ;
199 -> 200 ;
201 [label="gini = 0.0\nsamples = 5\nvalue = [0, 5]\nclass = 0"] ;
200 -> 201 ;
202 [label="economic.cond.national <= 3.5\ngini = 0.5\nsamples = 2\nvalue = [1, 1]\nclass = 1"] ;
200 -> 202 ;
203 [label="gini = 0.0\nsamples = 1\nvalue = [1, 0]\nclass = 1"] ;
202 -> 203 ;
204 [label="gini = 0.0\nsamples = 1\nvalue = [0, 1]\nclass = 0"] ;
202 -> 204 ;
205 [label="gini = 0.0\nsamples = 1\nvalue = [1, 0]\nclass = 1"] ;
199 -> 205 ;
206 [label="gini = 0.0\nsamples = 4\nvalue = [0, 4]\nclass = 0"] ;
198 -> 206 ;
207 [label="age <= 28.5\ngini = 0.343\nsamples = 41\nvalue = [9, 32]\nclass = 0"] ;
187 -> 207 ;
208 [label="gini = 0.0\nsamples = 1\nvalue = [1, 0]\nclass = 1"] ;
207 -> 208 ;
209 [label="economic.cond.national <= 4.5\ngini = 0.32\nsamples = 40\nvalue = [8, 32]\nclass = 0"] ;
207 -> 209 ;
210 [label="Blair <= 4.5\ngini = 0.353\nsamples = 35\nvalue = [8, 27]\nclass = 0"] ;
209 -> 210 ;
211 [label="age <= 73.0\ngini = 0.375\nsamples = 32\nvalue = [8, 24]\nclass = 0"] ;
210 -> 211 ;
212 [label="age <= 68.5\ngini = 0.35\nsamples = 31\nvalue = [7, 24]\nclass = 0"] ;
211 -> 212 ;
213 [label="age <= 67.5\ngini = 0.375\nsamples = 28\nvalue = [7, 21]\nclass = 0"] ;
212 -> 213 ;
214 [label="age <= 61.0\ngini = 0.346\nsamples = 27\nvalue = [6, 21]\nclass = 0"] ;
213 -> 214 ;
215 [label="age <= 54.5\ngini = 0.397\nsamples = 22\nvalue = [6, 16]\nclass = 0"] ;
214 -> 215 ;
216 [label="age <= 43.5\ngini = 0.291\nsamples = 17\nvalue = [3, 14]\nclass = 0"] ;
215 -> 216 ;
217 [label="age <= 42.0\ngini = 0.42\nsamples = 10\nvalue = [3, 7]\nclass = 0"] ;
216 -> 217 ;
218 [label="Europe <= 8.5\ngini = 0.245\nsamples = 7\nvalue = [1, 6]\nclass = 0"] ;
217 -> 218 ;
219 [label="gini = 0.0\nsamples = 5\nvalue = [0, 5]\nclass = 0"] ;
218 -> 219 ;
220 [label="Europe <= 10.0\ngini = 0.5\nsamples = 2\nvalue = [1, 1]\nclass = 1"] ;
218 -> 220 ;
221 [label="gini = 0.0\nsamples = 1\nvalue = [1, 0]\nclass = 1"] ;
220 -> 221 ;
222 [label="gini = 0.0\nsamples = 1\nvalue = [0, 1]\nclass = 0"] ;
220 -> 222 ;
223 [label="economic.cond.household <= 2.5\ngini = 0.444\nsamples = 3\nvalue = [2, 1]\nclass = 1"] ;
217 -> 223 ;
224 [label="gini = 0.0\nsamples = 1\nvalue = [0, 1]\nclass = 0"] ;
223 -> 224 ;
225 [label="gini = 0.0\nsamples = 2\nvalue = [2, 0]\nclass = 1"] ;
223 -> 225 ;
226 [label="gini = 0.0\nsamples = 7\nvalue = [0, 7]\nclass = 0"] ;
216 -> 226 ;
227 [label="Europe <= 9.5\ngini = 0.48\nsamples = 5\nvalue = [3, 2]\nclass = 1"] ;
215 -> 227 ;
228 [label="gini = 0.0\nsamples = 3\nvalue = [3, 0]\nclass = 1"] ;
227 -> 228 ;
229 [label="gini = 0.0\nsamples = 2\nvalue = [0, 2]\nclass = 0"] ;
227 -> 229 ;
230 [label="gini = 0.0\nsamples = 5\nvalue = [0, 5]\nclass = 0"] ;
214 -> 230 ;
231 [label="gini = 0.0\nsamples = 1\nvalue = [1, 0]\nclass = 1"] ;
213 -> 231 ;
232 [label="gini = 0.0\nsamples = 3\nvalue = [0, 3]\nclass = 0"] ;
212 -> 232 ;
233 [label="gini = 0.0\nsamples = 1\nvalue = [1, 0]\nclass = 1"] ;
211 -> 233 ;
234 [label="gini = 0.0\nsamples = 3\nvalue = [0, 3]\nclass = 0"] ;
210 -> 234 ;
235 [label="gini = 0.0\nsamples = 5\nvalue = [0, 5]\nclass = 0"] ;
209 -> 235 ;
236 [label="Europe <= 7.5\ngini = 0.493\nsamples = 445\nvalue = [248.0, 197.0]\nclass = 1"] ;
0 -> 236 [labeldistance=2.5, labelangle=-45, headlabel="False"] ;
237 [label="Blair <= 3.0\ngini = 0.446\nsamples = 200\nvalue = [67, 133]\nclass = 0"] ;
236 -> 237 ;
238 [label="economic.cond.household <= 3.5\ngini = 0.475\nsamples = 67\nvalue = [41, 26]\nclass = 1"] ;
237 -> 238 ;
239 [label="age <= 41.0\ngini = 0.441\nsamples = 58\nvalue = [39, 19]\nclass = 1"] ;
238 -> 239 ;
240 [label="economic.cond.national <= 3.5\ngini = 0.498\nsamples = 17\nvalue = [8, 9]\nclass = 0"] ;
239 -> 240 ;
241 [label="age <= 31.5\ngini = 0.48\nsamples = 15\nvalue = [6, 9]\nclass = 0"] ;
240 -> 241 ;
242 [label="economic.cond.household <= 2.5\ngini = 0.444\nsamples = 6\nvalue = [4, 2]\nclass = 1"] ;
241 -> 242 ;
243 [label="gini = 0.0\nsamples = 3\nvalue = [3, 0]\nclass = 1"] ;
242 -> 243 ;
244 [label="Europe <= 5.5\ngini = 0.444\nsamples = 3\nvalue = [1, 2]\nclass = 0"] ;
242 -> 244 ;
245 [label="gini = 0.0\nsamples = 1\nvalue = [1, 0]\nclass = 1"] ;
244 -> 245 ;
246 [label="gini = 0.0\nsamples = 2\nvalue = [0, 2]\nclass = 0"] ;
244 -> 246 ;
247 [label="economic.cond.household <= 1.5\ngini = 0.346\nsamples = 9\nvalue = [2, 7]\nclass = 0"] ;
241 -> 247 ;
248 [label="gini = 0.0\nsamples = 1\nvalue = [1, 0]\nclass = 1"] ;
247 -> 248 ;
249 [label="political.knowledge <= 1.0\ngini = 0.219\nsamples = 8\nvalue = [1, 7]\nclass = 0"] ;
247 -> 249 ;
250 [label="economic.cond.national <= 2.5\ngini = 0.5\nsamples = 2\nvalue = [1, 1]\nclass = 1"] ;
249 -> 250 ;
251 [label="gini = 0.0\nsamples = 1\nvalue = [1, 0]\nclass = 1"] ;
250 -> 251 ;
252 [label="gini = 0.0\nsamples = 1\nvalue = [0, 1]\nclass = 0"] ;
250 -> 252 ;
253 [label="gini = 0.0\nsamples = 6\nvalue = [0, 6]\nclass = 0"] ;
249 -> 253 ;
254 [label="gini = 0.0\nsamples = 2\nvalue = [2, 0]\nclass = 1"] ;
240 -> 254 ;
255 [label="economic.cond.household <= 1.5\ngini = 0.369\nsamples = 41\nvalue = [31, 10]\nclass = 1"] ;
239 -> 255 ;
256 [label="age <= 47.5\ngini = 0.444\nsamples = 3\nvalue = [1, 2]\nclass = 0"] ;
255 -> 256 ;
257 [label="gini = 0.0\nsamples = 1\nvalue = [1, 0]\nclass = 1"] ;
256 -> 257 ;
258 [label="gini = 0.0\nsamples = 2\nvalue = [0, 2]\nclass = 0"] ;
256 -> 258 ;
259 [label="Europe <= 3.5\ngini = 0.332\nsamples = 38\nvalue = [30, 8]\nclass = 1"] ;
255 -> 259 ;
260 [label="economic.cond.national <= 2.5\ngini = 0.486\nsamples = 12\nvalue = [7, 5]\nclass = 1"] ;
259 -> 260 ;
261 [label="age <= 82.0\ngini = 0.375\nsamples = 4\nvalue = [1, 3]\nclass = 0"] ;
260 -> 261 ;
262 [label="gini = 0.0\nsamples = 3\nvalue = [0, 3]\nclass = 0"] ;
261 -> 262 ;
263 [label="gini = 0.0\nsamples = 1\nvalue = [1, 0]\nclass = 1"] ;
261 -> 263 ;
264 [label="political.knowledge <= 2.5\ngini = 0.375\nsamples = 8\nvalue = [6, 2]\nclass = 1"] ;
260 -> 264 ;
265 [label="age <= 63.5\ngini = 0.278\nsamples = 6\nvalue = [5, 1]\nclass = 1"] ;
264 -> 265 ;
266 [label="gini = 0.0\nsamples = 4\nvalue = [4, 0]\nclass = 1"] ;
265 -> 266 ;
267 [label="age <= 72.5\ngini = 0.5\nsamples = 2\nvalue = [1, 1]\nclass = 1"] ;
265 -> 267 ;
268 [label="gini = 0.0\nsamples = 1\nvalue = [0, 1]\nclass = 0"] ;
267 -> 268 ;
269 [label="gini = 0.0\nsamples = 1\nvalue = [1, 0]\nclass = 1"] ;
267 -> 269 ;
270 [label="age <= 47.5\ngini = 0.5\nsamples = 2\nvalue = [1, 1]\nclass = 1"] ;
264 -> 270 ;
271 [label="gini = 0.0\nsamples = 1\nvalue = [1, 0]\nclass = 1"] ;
270 -> 271 ;
272 [label="gini = 0.0\nsamples = 1\nvalue = [0, 1]\nclass = 0"] ;
270 -> 272 ;
273 [label="economic.cond.national <= 3.5\ngini = 0.204\nsamples = 26\nvalue = [23, 3]\nclass = 1"] ;
259 -> 273 ;
274 [label="political.knowledge <= 2.5\ngini = 0.153\nsamples = 24\nvalue = [22, 2]\nclass = 1"] ;
273 -> 274 ;
275 [label="gender <= 0.5\ngini = 0.091\nsamples = 21\nvalue = [20, 1]\nclass = 1"] ;
274 -> 275 ;
276 [label="gini = 0.0\nsamples = 12\nvalue = [12, 0]\nclass = 1"] ;
275 -> 276 ;
277 [label="economic.cond.household <= 2.5\ngini = 0.198\nsamples = 9\nvalue = [8, 1]\nclass = 1"] ;
275 -> 277 ;
278 [label="gini = 0.0\nsamples = 4\nvalue = [4, 0]\nclass = 1"] ;
277 -> 278 ;
279 [label="political.knowledge <= 1.5\ngini = 0.32\nsamples = 5\nvalue = [4, 1]\nclass = 1"] ;
277 -> 279 ;
280 [label="gini = 0.0\nsamples = 3\nvalue = [3, 0]\nclass = 1"] ;
279 -> 280 ;
281 [label="Blair <= 1.5\ngini = 0.5\nsamples = 2\nvalue = [1, 1]\nclass = 1"] ;
279 -> 281 ;
282 [label="gini = 0.0\nsamples = 1\nvalue = [1, 0]\nclass = 1"] ;
281 -> 282 ;
283 [label="gini = 0.0\nsamples = 1\nvalue = [0, 1]\nclass = 0"] ;
281 -> 283 ;
284 [label="age <= 49.0\ngini = 0.444\nsamples = 3\nvalue = [2, 1]\nclass = 1"] ;
274 -> 284 ;
285 [label="gini = 0.0\nsamples = 1\nvalue = [0, 1]\nclass = 0"] ;
284 -> 285 ;
286 [label="gini = 0.0\nsamples = 2\nvalue = [2, 0]\nclass = 1"] ;
284 -> 286 ;
287 [label="political.knowledge <= 1.0\ngini = 0.5\nsamples = 2\nvalue = [1, 1]\nclass = 1"] ;
273 -> 287 ;
288 [label="gini = 0.0\nsamples = 1\nvalue = [0, 1]\nclass = 0"] ;
287 -> 288 ;
289 [label="gini = 0.0\nsamples = 1\nvalue = [1, 0]\nclass = 1"] ;
287 -> 289 ;
290 [label="economic.cond.national <= 4.5\ngini = 0.346\nsamples = 9\nvalue = [2, 7]\nclass = 0"] ;
238 -> 290 ;
291 [label="political.knowledge <= 1.0\ngini = 0.219\nsamples = 8\nvalue = [1, 7]\nclass = 0"] ;
290 -> 291 ;
292 [label="gini = 0.0\nsamples = 5\nvalue = [0, 5]\nclass = 0"] ;
291 -> 292 ;
293 [label="Europe <= 6.5\ngini = 0.444\nsamples = 3\nvalue = [1, 2]\nclass = 0"] ;
291 -> 293 ;
294 [label="gini = 0.0\nsamples = 1\nvalue = [1, 0]\nclass = 1"] ;
293 -> 294 ;
295 [label="gini = 0.0\nsamples = 2\nvalue = [0, 2]\nclass = 0"] ;
293 -> 295 ;
296 [label="gini = 0.0\nsamples = 1\nvalue = [1, 0]\nclass = 1"] ;
290 -> 296 ;
297 [label="age <= 54.5\ngini = 0.315\nsamples = 133\nvalue = [26, 107]\nclass = 0"] ;
237 -> 297 ;
298 [label="age <= 25.5\ngini = 0.12\nsamples = 78\nvalue = [5, 73]\nclass = 0"] ;
297 -> 298 ;
299 [label="gender <= 0.5\ngini = 0.5\nsamples = 2\nvalue = [1, 1]\nclass = 1"] ;
298 -> 299 ;
300 [label="gini = 0.0\nsamples = 1\nvalue = [0, 1]\nclass = 0"] ;
299 -> 300 ;
301 [label="gini = 0.0\nsamples = 1\nvalue = [1, 0]\nclass = 1"] ;
299 -> 301 ;
302 [label="economic.cond.national <= 2.5\ngini = 0.1\nsamples = 76\nvalue = [4, 72]\nclass = 0"] ;
298 -> 302 ;
303 [label="age <= 51.0\ngini = 0.298\nsamples = 11\nvalue = [2, 9]\nclass = 0"] ;
302 -> 303 ;
304 [label="age <= 46.5\ngini = 0.18\nsamples = 10\nvalue = [1, 9]\nclass = 0"] ;
303 -> 304 ;
305 [label="gini = 0.0\nsamples = 6\nvalue = [0, 6]\nclass = 0"] ;
304 -> 305 ;
306 [label="age <= 48.0\ngini = 0.375\nsamples = 4\nvalue = [1, 3]\nclass = 0"] ;
304 -> 306 ;
307 [label="gini = 0.0\nsamples = 1\nvalue = [1, 0]\nclass = 1"] ;
306 -> 307 ;
308 [label="gini = 0.0\nsamples = 3\nvalue = [0, 3]\nclass = 0"] ;
306 -> 308 ;
309 [label="gini = 0.0\nsamples = 1\nvalue = [1, 0]\nclass = 1"] ;
303 -> 309 ;
310 [label="economic.cond.household <= 2.5\ngini = 0.06\nsamples = 65\nvalue = [2, 63]\nclass = 0"] ;
302 -> 310 ;
311 [label="Europe <= 6.5\ngini = 0.18\nsamples = 10\nvalue = [1, 9]\nclass = 0"] ;
310 -> 311 ;
312 [label="gini = 0.0\nsamples = 8\nvalue = [0, 8]\nclass = 0"] ;
311 -> 312 ;
313 [label="age <= 39.5\ngini = 0.5\nsamples = 2\nvalue = [1, 1]\nclass = 1"] ;
311 -> 313 ;
314 [label="gini = 0.0\nsamples = 1\nvalue = [1, 0]\nclass = 1"] ;
313 -> 314 ;
315 [label="gini = 0.0\nsamples = 1\nvalue = [0, 1]\nclass = 0"] ;
313 -> 315 ;
316 [label="age <= 44.0\ngini = 0.036\nsamples = 55\nvalue = [1, 54]\nclass = 0"] ;
310 -> 316 ;
317 [label="gini = 0.0\nsamples = 36\nvalue = [0, 36]\nclass = 0"] ;
316 -> 317 ;
318 [label="age <= 45.5\ngini = 0.1\nsamples = 19\nvalue = [1, 18]\nclass = 0"] ;
316 -> 318 ;
319 [label="economic.cond.national <= 4.5\ngini = 0.5\nsamples = 2\nvalue = [1, 1]\nclass = 1"] ;
318 -> 319 ;
320 [label="gini = 0.0\nsamples = 1\nvalue = [1, 0]\nclass = 1"] ;
319 -> 320 ;
321 [label="gini = 0.0\nsamples = 1\nvalue = [0, 1]\nclass = 0"] ;
319 -> 321 ;
322 [label="gini = 0.0\nsamples = 17\nvalue = [0, 17]\nclass = 0"] ;
318 -> 322 ;
323 [label="Hague <= 4.5\ngini = 0.472\nsamples = 55\nvalue = [21, 34]\nclass = 0"] ;
297 -> 323 ;
324 [label="Blair <= 4.5\ngini = 0.444\nsamples = 51\nvalue = [17, 34]\nclass = 0"] ;
323 -> 324 ;
325 [label="age <= 73.5\ngini = 0.482\nsamples = 42\nvalue = [17, 25]\nclass = 0"] ;
324 -> 325 ;
326 [label="economic.cond.household <= 1.5\ngini = 0.499\nsamples = 31\nvalue = [15, 16]\nclass = 0"] ;
325 -> 326 ;
327 [label="gini = 0.0\nsamples = 2\nvalue = [0, 2]\nclass = 0"] ;
326 -> 327 ;
328 [label="Europe <= 6.5\ngini = 0.499\nsamples = 29\nvalue = [15.0, 14.0]\nclass = 1"] ;
326 -> 328 ;
329 [label="economic.cond.national <= 2.5\ngini = 0.497\nsamples = 26\nvalue = [12, 14]\nclass = 0"] ;
328 -> 329 ;
330 [label="Europe <= 3.5\ngini = 0.32\nsamples = 5\nvalue = [4, 1]\nclass = 1"] ;
329 -> 330 ;
331 [label="gini = 0.0\nsamples = 1\nvalue = [0, 1]\nclass = 0"] ;
330 -> 331 ;
332 [label="gini = 0.0\nsamples = 4\nvalue = [4, 0]\nclass = 1"] ;
330 -> 332 ;
333 [label="political.knowledge <= 1.5\ngini = 0.472\nsamples = 21\nvalue = [8, 13]\nclass = 0"] ;
329 -> 333 ;
334 [label="gender <= 0.5\ngini = 0.496\nsamples = 11\nvalue = [6, 5]\nclass = 1"] ;
333 -> 334 ;
335 [label="Europe <= 3.5\ngini = 0.408\nsamples = 7\nvalue = [5, 2]\nclass = 1"] ;
334 -> 335 ;
336 [label="economic.cond.household <= 2.5\ngini = 0.5\nsamples = 4\nvalue = [2, 2]\nclass = 1"] ;
335 -> 336 ;
337 [label="gini = 0.0\nsamples = 1\nvalue = [0, 1]\nclass = 0"] ;
336 -> 337 ;
338 [label="economic.cond.national <= 3.5\ngini = 0.444\nsamples = 3\nvalue = [2, 1]\nclass = 1"] ;
336 -> 338 ;
339 [label="gini = 0.0\nsamples = 1\nvalue = [1, 0]\nclass = 1"] ;
338 -> 339 ;
340 [label="age <= 55.5\ngini = 0.5\nsamples = 2\nvalue = [1, 1]\nclass = 1"] ;
338 -> 340 ;
341 [label="gini = 0.0\nsamples = 1\nvalue = [0, 1]\nclass = 0"] ;
340 -> 341 ;
342 [label="gini = 0.0\nsamples = 1\nvalue = [1, 0]\nclass = 1"] ;
340 -> 342 ;
343 [label="gini = 0.0\nsamples = 3\nvalue = [3, 0]\nclass = 1"] ;
335 -> 343 ;
344 [label="age <= 62.5\ngini = 0.375\nsamples = 4\nvalue = [1, 3]\nclass = 0"] ;
334 -> 344 ;
345 [label="gini = 0.0\nsamples = 2\nvalue = [0, 2]\nclass = 0"] ;
344 -> 345 ;
346 [label="Europe <= 5.0\ngini = 0.5\nsamples = 2\nvalue = [1, 1]\nclass = 1"] ;
344 -> 346 ;
347 [label="gini = 0.0\nsamples = 1\nvalue = [0, 1]\nclass = 0"] ;
346 -> 347 ;
348 [label="gini = 0.0\nsamples = 1\nvalue = [1, 0]\nclass = 1"] ;
346 -> 348 ;
349 [label="Europe <= 3.0\ngini = 0.32\nsamples = 10\nvalue = [2, 8]\nclass = 0"] ;
333 -> 349 ;
350 [label="gini = 0.0\nsamples = 1\nvalue = [1, 0]\nclass = 1"] ;
349 -> 350 ;
351 [label="age <= 70.0\ngini = 0.198\nsamples = 9\nvalue = [1, 8]\nclass = 0"] ;
349 -> 351 ;
352 [label="gini = 0.0\nsamples = 8\nvalue = [0, 8]\nclass = 0"] ;
351 -> 352 ;
353 [label="gini = 0.0\nsamples = 1\nvalue = [1, 0]\nclass = 1"] ;
351 -> 353 ;
354 [label="gini = 0.0\nsamples = 3\nvalue = [3, 0]\nclass = 1"] ;
328 -> 354 ;
355 [label="economic.cond.household <= 2.5\ngini = 0.298\nsamples = 11\nvalue = [2, 9]\nclass = 0"] ;
325 -> 355 ;
356 [label="gini = 0.0\nsamples = 3\nvalue = [0, 3]\nclass = 0"] ;
355 -> 356 ;
357 [label="economic.cond.national <= 3.5\ngini = 0.375\nsamples = 8\nvalue = [2, 6]\nclass = 0"] ;
355 -> 357 ;
358 [label="Europe <= 5.0\ngini = 0.48\nsamples = 5\nvalue = [2, 3]\nclass = 0"] ;
357 -> 358 ;
359 [label="age <= 78.0\ngini = 0.375\nsamples = 4\nvalue = [1, 3]\nclass = 0"] ;
358 -> 359 ;
360 [label="age <= 75.5\ngini = 0.5\nsamples = 2\nvalue = [1, 1]\nclass = 1"] ;
359 -> 360 ;
361 [label="gini = 0.0\nsamples = 1\nvalue = [0, 1]\nclass = 0"] ;
360 -> 361 ;
362 [label="gini = 0.0\nsamples = 1\nvalue = [1, 0]\nclass = 1"] ;
360 -> 362 ;
363 [label="gini = 0.0\nsamples = 2\nvalue = [0, 2]\nclass = 0"] ;
359 -> 363 ;
364 [label="gini = 0.0\nsamples = 1\nvalue = [1, 0]\nclass = 1"] ;
358 -> 364 ;
365 [label="gini = 0.0\nsamples = 3\nvalue = [0, 3]\nclass = 0"] ;
357 -> 365 ;
366 [label="gini = 0.0\nsamples = 9\nvalue = [0, 9]\nclass = 0"] ;
324 -> 366 ;
367 [label="gini = 0.0\nsamples = 4\nvalue = [4, 0]\nclass = 1"] ;
323 -> 367 ;
368 [label="political.knowledge <= 0.5\ngini = 0.386\nsamples = 245\nvalue = [181, 64]\nclass = 1"] ;
236 -> 368 ;
369 [label="economic.cond.national <= 4.5\ngini = 0.471\nsamples = 58\nvalue = [22, 36]\nclass = 0"] ;
368 -> 369 ;
370 [label="Blair <= 3.0\ngini = 0.491\nsamples = 51\nvalue = [22, 29]\nclass = 0"] ;
369 -> 370 ;
371 [label="Europe <= 10.5\ngini = 0.488\nsamples = 26\nvalue = [15.0, 11.0]\nclass = 1"] ;
370 -> 371 ;
372 [label="Europe <= 9.5\ngini = 0.463\nsamples = 11\nvalue = [4, 7]\nclass = 0"] ;
371 -> 372 ;
373 [label="age <= 41.0\ngini = 0.5\nsamples = 8\nvalue = [4, 4]\nclass = 1"] ;
372 -> 373 ;
374 [label="gini = 0.0\nsamples = 2\nvalue = [2, 0]\nclass = 1"] ;
373 -> 374 ;
375 [label="Europe <= 8.5\ngini = 0.444\nsamples = 6\nvalue = [2, 4]\nclass = 0"] ;
373 -> 375 ;
376 [label="gini = 0.0\nsamples = 4\nvalue = [0, 4]\nclass = 0"] ;
375 -> 376 ;
377 [label="gini = 0.0\nsamples = 2\nvalue = [2, 0]\nclass = 1"] ;
375 -> 377 ;
378 [label="gini = 0.0\nsamples = 3\nvalue = [0, 3]\nclass = 0"] ;
372 -> 378 ;
379 [label="economic.cond.household <= 1.5\ngini = 0.391\nsamples = 15\nvalue = [11, 4]\nclass = 1"] ;
371 -> 379 ;
380 [label="gini = 0.0\nsamples = 1\nvalue = [0, 1]\nclass = 0"] ;
379 -> 380 ;
381 [label="economic.cond.household <= 3.5\ngini = 0.337\nsamples = 14\nvalue = [11, 3]\nclass = 1"] ;
379 -> 381 ;
382 [label="age <= 56.0\ngini = 0.444\nsamples = 9\nvalue = [6, 3]\nclass = 1"] ;
381 -> 382 ;
383 [label="gini = 0.0\nsamples = 2\nvalue = [0, 2]\nclass = 0"] ;
382 -> 383 ;
384 [label="Hague <= 4.5\ngini = 0.245\nsamples = 7\nvalue = [6, 1]\nclass = 1"] ;
382 -> 384 ;
385 [label="gini = 0.0\nsamples = 5\nvalue = [5, 0]\nclass = 1"] ;
384 -> 385 ;
386 [label="age <= 69.5\ngini = 0.5\nsamples = 2\nvalue = [1, 1]\nclass = 1"] ;
384 -> 386 ;
387 [label="gini = 0.0\nsamples = 1\nvalue = [1, 0]\nclass = 1"] ;
386 -> 387 ;
388 [label="gini = 0.0\nsamples = 1\nvalue = [0, 1]\nclass = 0"] ;
386 -> 388 ;
389 [label="gini = 0.0\nsamples = 5\nvalue = [5, 0]\nclass = 1"] ;
381 -> 389 ;
390 [label="age <= 77.0\ngini = 0.403\nsamples = 25\nvalue = [7.0, 18.0]\nclass = 0"] ;
370 -> 390 ;
391 [label="Hague <= 4.5\ngini = 0.34\nsamples = 23\nvalue = [5, 18]\nclass = 0"] ;
390 -> 391 ;
392 [label="age <= 62.5\ngini = 0.298\nsamples = 22\nvalue = [4, 18]\nclass = 0"] ;
391 -> 392 ;
393 [label="gini = 0.0\nsamples = 12\nvalue = [0, 12]\nclass = 0"] ;
392 -> 393 ;
394 [label="economic.cond.household <= 2.5\ngini = 0.48\nsamples = 10\nvalue = [4, 6]\nclass = 0"] ;
392 -> 394 ;
395 [label="gini = 0.0\nsamples = 2\nvalue = [2, 0]\nclass = 1"] ;
394 -> 395 ;
396 [label="economic.cond.national <= 2.5\ngini = 0.375\nsamples = 8\nvalue = [2, 6]\nclass = 0"] ;
394 -> 396 ;
397 [label="gini = 0.0\nsamples = 1\nvalue = [1, 0]\nclass = 1"] ;
396 -> 397 ;
398 [label="age <= 66.5\ngini = 0.245\nsamples = 7\nvalue = [1, 6]\nclass = 0"] ;
396 -> 398 ;
399 [label="economic.cond.household <= 3.5\ngini = 0.444\nsamples = 3\nvalue = [1, 2]\nclass = 0"] ;
398 -> 399 ;
400 [label="gini = 0.0\nsamples = 1\nvalue = [0, 1]\nclass = 0"] ;
399 -> 400 ;
401 [label="Blair <= 4.5\ngini = 0.5\nsamples = 2\nvalue = [1, 1]\nclass = 1"] ;
399 -> 401 ;
402 [label="gini = 0.0\nsamples = 1\nvalue = [1, 0]\nclass = 1"] ;
401 -> 402 ;
403 [label="gini = 0.0\nsamples = 1\nvalue = [0, 1]\nclass = 0"] ;
401 -> 403 ;
404 [label="gini = 0.0\nsamples = 4\nvalue = [0, 4]\nclass = 0"] ;
398 -> 404 ;
405 [label="gini = 0.0\nsamples = 1\nvalue = [1, 0]\nclass = 1"] ;
391 -> 405 ;
406 [label="gini = 0.0\nsamples = 2\nvalue = [2, 0]\nclass = 1"] ;
390 -> 406 ;
407 [label="gini = 0.0\nsamples = 7\nvalue = [0, 7]\nclass = 0"] ;
369 -> 407 ;
408 [label="Blair <= 4.5\ngini = 0.255\nsamples = 187\nvalue = [159.0, 28.0]\nclass = 1"] ;
368 -> 408 ;
409 [label="age <= 85.5\ngini = 0.235\nsamples = 184\nvalue = [159, 25]\nclass = 1"] ;
408 -> 409 ;
410 [label="Blair <= 3.5\ngini = 0.228\nsamples = 183\nvalue = [159, 24]\nclass = 1"] ;
409 -> 410 ;
411 [label="political.knowledge <= 2.5\ngini = 0.16\nsamples = 114\nvalue = [104, 10]\nclass = 1"] ;
410 -> 411 ;
412 [label="economic.cond.national <= 2.5\ngini = 0.192\nsamples = 93\nvalue = [83, 10]\nclass = 1"] ;
411 -> 412 ;
413 [label="age <= 49.0\ngini = 0.105\nsamples = 36\nvalue = [34, 2]\nclass = 1"] ;
412 -> 413 ;
414 [label="age <= 43.5\ngini = 0.219\nsamples = 16\nvalue = [14, 2]\nclass = 1"] ;
413 -> 414 ;
415 [label="gini = 0.0\nsamples = 10\nvalue = [10, 0]\nclass = 1"] ;
414 -> 415 ;
416 [label="age <= 44.5\ngini = 0.444\nsamples = 6\nvalue = [4, 2]\nclass = 1"] ;
414 -> 416 ;
417 [label="gini = 0.0\nsamples = 1\nvalue = [0, 1]\nclass = 0"] ;
416 -> 417 ;
418 [label="age <= 47.5\ngini = 0.32\nsamples = 5\nvalue = [4, 1]\nclass = 1"] ;
416 -> 418 ;
419 [label="gini = 0.0\nsamples = 3\nvalue = [3, 0]\nclass = 1"] ;
418 -> 419 ;
420 [label="Europe <= 10.0\ngini = 0.5\nsamples = 2\nvalue = [1, 1]\nclass = 1"] ;
418 -> 420 ;
421 [label="gini = 0.0\nsamples = 1\nvalue = [0, 1]\nclass = 0"] ;
420 -> 421 ;
422 [label="gini = 0.0\nsamples = 1\nvalue = [1, 0]\nclass = 1"] ;
420 -> 422 ;
423 [label="gini = 0.0\nsamples = 20\nvalue = [20, 0]\nclass = 1"] ;
413 -> 423 ;
424 [label="age <= 68.0\ngini = 0.241\nsamples = 57\nvalue = [49, 8]\nclass = 1"] ;
412 -> 424 ;
425 [label="Europe <= 9.5\ngini = 0.172\nsamples = 42\nvalue = [38, 4]\nclass = 1"] ;
424 -> 425 ;
426 [label="political.knowledge <= 1.5\ngini = 0.375\nsamples = 12\nvalue = [9, 3]\nclass = 1"] ;
425 -> 426 ;
427 [label="gini = 0.0\nsamples = 1\nvalue = [0, 1]\nclass = 0"] ;
426 -> 427 ;
428 [label="economic.cond.national <= 3.5\ngini = 0.298\nsamples = 11\nvalue = [9, 2]\nclass = 1"] ;
426 -> 428 ;
429 [label="gender <= 0.5\ngini = 0.444\nsamples = 6\nvalue = [4, 2]\nclass = 1"] ;
428 -> 429 ;
430 [label="gini = 0.0\nsamples = 1\nvalue = [0, 1]\nclass = 0"] ;
429 -> 430 ;
431 [label="Blair <= 1.5\ngini = 0.32\nsamples = 5\nvalue = [4, 1]\nclass = 1"] ;
429 -> 431 ;
432 [label="gini = 0.0\nsamples = 1\nvalue = [0, 1]\nclass = 0"] ;
431 -> 432 ;
433 [label="gini = 0.0\nsamples = 4\nvalue = [4, 0]\nclass = 1"] ;
431 -> 433 ;
434 [label="gini = 0.0\nsamples = 5\nvalue = [5, 0]\nclass = 1"] ;
428 -> 434 ;
435 [label="gender <= 0.5\ngini = 0.064\nsamples = 30\nvalue = [29, 1]\nclass = 1"] ;
425 -> 435 ;
436 [label="gini = 0.0\nsamples = 17\nvalue = [17, 0]\nclass = 1"] ;
435 -> 436 ;
437 [label="age <= 53.5\ngini = 0.142\nsamples = 13\nvalue = [12, 1]\nclass = 1"] ;
435 -> 437 ;
438 [label="age <= 52.5\ngini = 0.278\nsamples = 6\nvalue = [5, 1]\nclass = 1"] ;
437 -> 438 ;
439 [label="gini = 0.0\nsamples = 5\nvalue = [5, 0]\nclass = 1"] ;
438 -> 439 ;
440 [label="gini = 0.0\nsamples = 1\nvalue = [0, 1]\nclass = 0"] ;
438 -> 440 ;
441 [label="gini = 0.0\nsamples = 7\nvalue = [7, 0]\nclass = 1"] ;
437 -> 441 ;
442 [label="age <= 72.0\ngini = 0.391\nsamples = 15\nvalue = [11, 4]\nclass = 1"] ;
424 -> 442 ;
443 [label="Europe <= 10.0\ngini = 0.48\nsamples = 5\nvalue = [2, 3]\nclass = 0"] ;
442 -> 443 ;
444 [label="gini = 0.0\nsamples = 1\nvalue = [1, 0]\nclass = 1"] ;
443 -> 444 ;
445 [label="economic.cond.national <= 3.5\ngini = 0.375\nsamples = 4\nvalue = [1, 3]\nclass = 0"] ;
443 -> 445 ;
446 [label="gini = 0.0\nsamples = 3\nvalue = [0, 3]\nclass = 0"] ;
445 -> 446 ;
447 [label="gini = 0.0\nsamples = 1\nvalue = [1, 0]\nclass = 1"] ;
445 -> 447 ;
448 [label="economic.cond.household <= 3.5\ngini = 0.18\nsamples = 10\nvalue = [9, 1]\nclass = 1"] ;
442 -> 448 ;
449 [label="gini = 0.0\nsamples = 8\nvalue = [8, 0]\nclass = 1"] ;
448 -> 449 ;
450 [label="gender <= 0.5\ngini = 0.5\nsamples = 2\nvalue = [1, 1]\nclass = 1"] ;
448 -> 450 ;
451 [label="gini = 0.0\nsamples = 1\nvalue = [1, 0]\nclass = 1"] ;
450 -> 451 ;
452 [label="gini = 0.0\nsamples = 1\nvalue = [0, 1]\nclass = 0"] ;
450 -> 452 ;
453 [label="gini = 0.0\nsamples = 21\nvalue = [21, 0]\nclass = 1"] ;
411 -> 453 ;
454 [label="economic.cond.national <= 3.5\ngini = 0.323\nsamples = 69\nvalue = [55, 14]\nclass = 1"] ;
410 -> 454 ;
455 [label="economic.cond.national <= 1.5\ngini = 0.198\nsamples = 45\nvalue = [40, 5]\nclass = 1"] ;
454 -> 455 ;
456 [label="gini = 0.0\nsamples = 1\nvalue = [0, 1]\nclass = 0"] ;
455 -> 456 ;
457 [label="economic.cond.household <= 3.5\ngini = 0.165\nsamples = 44\nvalue = [40, 4]\nclass = 1"] ;
455 -> 457 ;
458 [label="age <= 49.5\ngini = 0.064\nsamples = 30\nvalue = [29, 1]\nclass = 1"] ;
457 -> 458 ;
459 [label="Europe <= 9.5\ngini = 0.219\nsamples = 8\nvalue = [7, 1]\nclass = 1"] ;
458 -> 459 ;
460 [label="age <= 45.5\ngini = 0.444\nsamples = 3\nvalue = [2, 1]\nclass = 1"] ;
459 -> 460 ;
461 [label="gini = 0.0\nsamples = 2\nvalue = [2, 0]\nclass = 1"] ;
460 -> 461 ;
462 [label="gini = 0.0\nsamples = 1\nvalue = [0, 1]\nclass = 0"] ;
460 -> 462 ;
463 [label="gini = 0.0\nsamples = 5\nvalue = [5, 0]\nclass = 1"] ;
459 -> 463 ;
464 [label="gini = 0.0\nsamples = 22\nvalue = [22, 0]\nclass = 1"] ;
458 -> 464 ;
465 [label="gender <= 0.5\ngini = 0.337\nsamples = 14\nvalue = [11, 3]\nclass = 1"] ;
457 -> 465 ;
466 [label="gini = 0.0\nsamples = 5\nvalue = [5, 0]\nclass = 1"] ;
465 -> 466 ;
467 [label="age <= 29.5\ngini = 0.444\nsamples = 9\nvalue = [6, 3]\nclass = 1"] ;
465 -> 467 ;
468 [label="gini = 0.0\nsamples = 2\nvalue = [2, 0]\nclass = 1"] ;
467 -> 468 ;
469 [label="age <= 71.5\ngini = 0.49\nsamples = 7\nvalue = [4, 3]\nclass = 1"] ;
467 -> 469 ;
470 [label="economic.cond.national <= 2.5\ngini = 0.48\nsamples = 5\nvalue = [2, 3]\nclass = 0"] ;
469 -> 470 ;
471 [label="gini = 0.0\nsamples = 1\nvalue = [1, 0]\nclass = 1"] ;
470 -> 471 ;
472 [label="Europe <= 10.0\ngini = 0.375\nsamples = 4\nvalue = [1, 3]\nclass = 0"] ;
470 -> 472 ;
473 [label="gini = 0.0\nsamples = 2\nvalue = [0, 2]\nclass = 0"] ;
472 -> 473 ;
474 [label="economic.cond.household <= 4.5\ngini = 0.5\nsamples = 2\nvalue = [1, 1]\nclass = 1"] ;
472 -> 474 ;
475 [label="gini = 0.0\nsamples = 1\nvalue = [1, 0]\nclass = 1"] ;
474 -> 475 ;
476 [label="gini = 0.0\nsamples = 1\nvalue = [0, 1]\nclass = 0"] ;
474 -> 476 ;
477 [label="gini = 0.0\nsamples = 2\nvalue = [2, 0]\nclass = 1"] ;
469 -> 477 ;
478 [label="age <= 80.5\ngini = 0.469\nsamples = 24\nvalue = [15, 9]\nclass = 1"] ;
454 -> 478 ;
479 [label="political.knowledge <= 1.5\ngini = 0.454\nsamples = 23\nvalue = [15, 8]\nclass = 1"] ;
478 -> 479 ;
480 [label="gini = 0.0\nsamples = 1\nvalue = [0, 1]\nclass = 0"] ;
479 -> 480 ;
481 [label="Europe <= 10.5\ngini = 0.434\nsamples = 22\nvalue = [15.0, 7.0]\nclass = 1"] ;
479 -> 481 ;
482 [label="Europe <= 9.5\ngini = 0.32\nsamples = 10\nvalue = [8, 2]\nclass = 1"] ;
481 -> 482 ;
483 [label="age <= 44.0\ngini = 0.444\nsamples = 6\nvalue = [4, 2]\nclass = 1"] ;
482 -> 483 ;
484 [label="gini = 0.0\nsamples = 2\nvalue = [2, 0]\nclass = 1"] ;
483 -> 484 ;
485 [label="gender <= 0.5\ngini = 0.5\nsamples = 4\nvalue = [2, 2]\nclass = 1"] ;
483 -> 485 ;
486 [label="age <= 54.0\ngini = 0.444\nsamples = 3\nvalue = [2, 1]\nclass = 1"] ;
485 -> 486 ;
487 [label="gini = 0.0\nsamples = 1\nvalue = [0, 1]\nclass = 0"] ;
486 -> 487 ;
488 [label="gini = 0.0\nsamples = 2\nvalue = [2, 0]\nclass = 1"] ;
486 -> 488 ;
489 [label="gini = 0.0\nsamples = 1\nvalue = [0, 1]\nclass = 0"] ;
485 -> 489 ;
490 [label="gini = 0.0\nsamples = 4\nvalue = [4, 0]\nclass = 1"] ;
482 -> 490 ;
491 [label="age <= 68.0\ngini = 0.486\nsamples = 12\nvalue = [7, 5]\nclass = 1"] ;
481 -> 491 ;
492 [label="economic.cond.household <= 3.5\ngini = 0.408\nsamples = 7\nvalue = [5, 2]\nclass = 1"] ;
491 -> 492 ;
493 [label="age <= 48.5\ngini = 0.444\nsamples = 3\nvalue = [1, 2]\nclass = 0"] ;
492 -> 493 ;
494 [label="gini = 0.0\nsamples = 2\nvalue = [0, 2]\nclass = 0"] ;
493 -> 494 ;
495 [label="gini = 0.0\nsamples = 1\nvalue = [1, 0]\nclass = 1"] ;
493 -> 495 ;
496 [label="gini = 0.0\nsamples = 4\nvalue = [4, 0]\nclass = 1"] ;
492 -> 496 ;
497 [label="economic.cond.household <= 3.5\ngini = 0.48\nsamples = 5\nvalue = [2, 3]\nclass = 0"] ;
491 -> 497 ;
498 [label="gini = 0.0\nsamples = 2\nvalue = [2, 0]\nclass = 1"] ;
497 -> 498 ;
499 [label="gini = 0.0\nsamples = 3\nvalue = [0, 3]\nclass = 0"] ;
497 -> 499 ;
500 [label="gini = 0.0\nsamples = 1\nvalue = [0, 1]\nclass = 0"] ;
478 -> 500 ;
501 [label="gini = 0.0\nsamples = 1\nvalue = [0, 1]\nclass = 0"] ;
409 -> 501 ;
502 [label="gini = 0.0\nsamples = 3\nvalue = [0, 3]\nclass = 0"] ;
408 -> 502 ;
}